<?xml version="1.0"?>
<opencv_storage>
<cascade>
  <stageType>BOOST</stageType>
  <featureType>HAAR</featureType>
  <height>32</height>
  <width>32</width>
  <stageParams>
    <boostType>GAB</boostType>
    <minHitRate>9.9500000476837158e-01</minHitRate>
    <maxFalseAlarm>5.0000000000000000e-01</maxFalseAlarm>
    <weightTrimRate>9.4999998807907104e-01</weightTrimRate>
    <maxDepth>1</maxDepth>
    <maxWeakCount>100</maxWeakCount></stageParams>
  <featureParams>
    <maxCatCount>0</maxCatCount>
    <featSize>1</featSize>
    <mode>BASIC</mode></featureParams>
  <stageNum>9</stageNum>
  <stages>
    <!-- stage 0 -->
    <_>
      <maxWeakCount>1</maxWeakCount>
      <stageThreshold>9.5238095521926880e-01</stageThreshold>
      <weakClassifiers>
        <_>
          <internalNodes>
            0 -1 5 1.9053801894187927e-01</internalNodes>
          <leafValues>
            -1. 9.5238095521926880e-01</leafValues></_></weakClassifiers></_>
    <!-- stage 1 -->
    <_>
      <maxWeakCount>2</maxWeakCount>
      <stageThreshold>-2.3822832107543945e-01</stageThreshold>
      <weakClassifiers>
        <_>
          <internalNodes>
            0 -1 2 5.3187157027423382e-03</internalNodes>
          <leafValues>
            -9.5424836874008179e-01 9.4285714626312256e-01</leafValues></_>
        <_>
          <internalNodes>
            0 -1 19 1.3308797962963581e-02</internalNodes>
          <leafValues>
            -9.7947674989700317e-01 7.1602004766464233e-01</leafValues></_></weakClassifiers></_>
    <!-- stage 2 -->
    <_>
      <maxWeakCount>3</maxWeakCount>
      <stageThreshold>-8.7074387073516846e-01</stageThreshold>
      <weakClassifiers>
        <_>
          <internalNodes>
            0 -1 13 -6.8485019728541374e-03</internalNodes>
          <leafValues>
            1. -9.0476191043853760e-01</leafValues></_>
        <_>
          <internalNodes>
            0 -1 21 -2.9999953694641590e-03</internalNodes>
          <leafValues>
            8.1362676620483398e-01 -8.2633650302886963e-01</leafValues></_>
        <_>
          <internalNodes>
            0 -1 15 -4.1964137926697731e-03</internalNodes>
          <leafValues>
            8.8744419813156128e-01 -7.7960878610610962e-01</leafValues></_></weakClassifiers></_>
    <!-- stage 3 -->
    <_>
      <maxWeakCount>3</maxWeakCount>
      <stageThreshold>-1.0792678594589233e+00</stageThreshold>
      <weakClassifiers>
        <_>
          <internalNodes>
            0 -1 8 1.5281260013580322e-02</internalNodes>
          <leafValues>
            -8.9274448156356812e-01 1.</leafValues></_>
        <_>
          <internalNodes>
            0 -1 12 -4.4879498891532421e-03</internalNodes>
          <leafValues>
            7.5144731998443604e-01 -8.4753090143203735e-01</leafValues></_>
        <_>
          <internalNodes>
            0 -1 11 1.4849098399281502e-02</internalNodes>
          <leafValues>
            -1. 6.6100746393203735e-01</leafValues></_></weakClassifiers></_>
    <!-- stage 4 -->
    <_>
      <maxWeakCount>3</maxWeakCount>
      <stageThreshold>-1.0437040328979492e+00</stageThreshold>
      <weakClassifiers>
        <_>
          <internalNodes>
            0 -1 16 9.9942870438098907e-03</internalNodes>
          <leafValues>
            -8.8607597351074219e-01 8.3999997377395630e-01</leafValues></_>
        <_>
          <internalNodes>
            0 -1 9 2.9812479391694069e-02</internalNodes>
          <leafValues>
            -9.0637362003326416e-01 6.2271070480346680e-01</leafValues></_>
        <_>
          <internalNodes>
            0 -1 18 2.0976938307285309e-02</internalNodes>
          <leafValues>
            -7.8033876419067383e-01 7.8900611400604248e-01</leafValues></_></weakClassifiers></_>
    <!-- stage 5 -->
    <_>
      <maxWeakCount>3</maxWeakCount>
      <stageThreshold>-1.0551804304122925e+00</stageThreshold>
      <weakClassifiers>
        <_>
          <internalNodes>
            0 -1 1 -4.9182772636413574e-02</internalNodes>
          <leafValues>
            7.8571426868438721e-01 -8.9776355028152466e-01</leafValues></_>
        <_>
          <internalNodes>
            0 -1 17 1.3815358281135559e-02</internalNodes>
          <leafValues>
            -7.1090322732925415e-01 1.</leafValues></_>
        <_>
          <internalNodes>
            0 -1 3 -3.8884848356246948e-02</internalNodes>
          <leafValues>
            5.5348634719848633e-01 -1.</leafValues></_></weakClassifiers></_>
    <!-- stage 6 -->
    <_>
      <maxWeakCount>3</maxWeakCount>
      <stageThreshold>-8.8220208883285522e-01</stageThreshold>
      <weakClassifiers>
        <_>
          <internalNodes>
            0 -1 6 -2.2636763751506805e-02</internalNodes>
          <leafValues>
            1. -8.6915886402130127e-01</leafValues></_>
        <_>
          <internalNodes>
            0 -1 10 -1.0374701581895351e-02</internalNodes>
          <leafValues>
            9.4732749462127686e-01 -7.3506927490234375e-01</leafValues></_>
        <_>
          <internalNodes>
            0 -1 22 -8.6717922240495682e-03</internalNodes>
          <leafValues>
            7.2202605009078979e-01 -7.7603870630264282e-01</leafValues></_></weakClassifiers></_>
    <!-- stage 7 -->
    <_>
      <maxWeakCount>2</maxWeakCount>
      <stageThreshold>-3.7476098537445068e-01</stageThreshold>
      <weakClassifiers>
        <_>
          <internalNodes>
            0 -1 0 -4.8072904348373413e-02</internalNodes>
          <leafValues>
            8.3999997377395630e-01 -8.8607597351074219e-01</leafValues></_>
        <_>
          <internalNodes>
            0 -1 7 -3.4554058220237494e-03</internalNodes>
          <leafValues>
            5.1131498813629150e-01 -9.5439225435256958e-01</leafValues></_></weakClassifiers></_>
    <!-- stage 8 -->
    <_>
      <maxWeakCount>3</maxWeakCount>
      <stageThreshold>-1.0477046966552734e+00</stageThreshold>
      <weakClassifiers>
        <_>
          <internalNodes>
            0 -1 4 -2.3036058992147446e-02</internalNodes>
          <leafValues>
            1. -8.8679248094558716e-01</leafValues></_>
        <_>
          <internalNodes>
            0 -1 20 -3.2701488584280014e-02</internalNodes>
          <leafValues>
            6.6158753633499146e-01 -8.8203376531600952e-01</leafValues></_>
        <_>
          <internalNodes>
            0 -1 14 -2.5112420189543627e-05</internalNodes>
          <leafValues>
            7.8364354372024536e-01 -8.2249981164932251e-01</leafValues></_></weakClassifiers></_></stages>
  <features>
    <_>
      <rects>
        <_>
          0 16 12 13 -1.</_>
        <_>
          6 16 6 13 2.</_></rects>
      <tilted>0</tilted></_>
    <_>
      <rects>
        <_>
          3 4 10 24 -1.</_>
        <_>
          8 4 5 24 2.</_></rects>
      <tilted>0</tilted></_>
    <_>
      <rects>
        <_>
          6 14 6 5 -1.</_>
        <_>
          8 14 2 5 3.</_></rects>
      <tilted>0</tilted></_>
    <_>
      <rects>
        <_>
          7 18 17 6 -1.</_>
        <_>
          7 21 17 3 2.</_></rects>
      <tilted>0</tilted></_>
    <_>
      <rects>
        <_>
          8 1 15 4 -1.</_>
        <_>
          8 3 15 2 2.</_></rects>
      <tilted>0</tilted></_>
    <_>
      <rects>
        <_>
          8 5 17 21 -1.</_>
        <_>
          8 12 17 7 3.</_></rects>
      <tilted>0</tilted></_>
    <_>
      <rects>
        <_>
          8 14 6 6 -1.</_>
        <_>
          10 14 2 6 3.</_></rects>
      <tilted>0</tilted></_>
    <_>
      <rects>
        <_>
          8 14 20 6 -1.</_>
        <_>
          8 14 10 3 2.</_>
        <_>
          18 17 10 3 2.</_></rects>
      <tilted>0</tilted></_>
    <_>
      <rects>
        <_>
          10 12 6 4 -1.</_>
        <_>
          12 12 2 4 3.</_></rects>
      <tilted>0</tilted></_>
    <_>
      <rects>
        <_>
          11 8 8 9 -1.</_>
        <_>
          11 11 8 3 3.</_></rects>
      <tilted>0</tilted></_>
    <_>
      <rects>
        <_>
          11 12 3 11 -1.</_>
        <_>
          12 12 1 11 3.</_></rects>
      <tilted>0</tilted></_>
    <_>
      <rects>
        <_>
          11 18 18 3 -1.</_>
        <_>
          17 18 6 3 3.</_></rects>
      <tilted>0</tilted></_>
    <_>
      <rects>
        <_>
          12 16 3 5 -1.</_>
        <_>
          13 16 1 5 3.</_></rects>
      <tilted>0</tilted></_>
    <_>
      <rects>
        <_>
          13 14 3 6 -1.</_>
        <_>
          14 14 1 6 3.</_></rects>
      <tilted>0</tilted></_>
    <_>
      <rects>
        <_>
          13 22 1 2 -1.</_>
        <_>
          13 23 1 1 2.</_></rects>
      <tilted>0</tilted></_>
    <_>
      <rects>
        <_>
          13 28 3 4 -1.</_>
        <_>
          13 30 3 2 2.</_></rects>
      <tilted>0</tilted></_>
    <_>
      <rects>
        <_>
          15 13 3 6 -1.</_>
        <_>
          16 13 1 6 3.</_></rects>
      <tilted>0</tilted></_>
    <_>
      <rects>
        <_>
          15 13 3 7 -1.</_>
        <_>
          16 13 1 7 3.</_></rects>
      <tilted>0</tilted></_>
    <_>
      <rects>
        <_>
          17 0 12 10 -1.</_>
        <_>
          17 0 6 5 2.</_>
        <_>
          23 5 6 5 2.</_></rects>
      <tilted>0</tilted></_>
    <_>
      <rects>
        <_>
          17 13 12 5 -1.</_>
        <_>
          21 13 4 5 3.</_></rects>
      <tilted>0</tilted></_>
    <_>
      <rects>
        <_>
          22 13 10 5 -1.</_>
        <_>
          27 13 5 5 2.</_></rects>
      <tilted>0</tilted></_>
    <_>
      <rects>
        <_>
          24 13 3 3 -1.</_>
        <_>
          25 13 1 3 3.</_></rects>
      <tilted>0</tilted></_>
    <_>
      <rects>
        <_>
          24 19 8 11 -1.</_>
        <_>
          28 19 4 11 2.</_></rects>
      <tilted>0</tilted></_></features></cascade>
</opencv_storage>
